-1.577113121747970581e-01,
7.173035740852355957e-01,
-7.133861631155014038e-02,
1.908199787139892578e-01,
-2.285286039113998413e-02,
1.735175848007202148e-01,
5.675175189971923828e-01,
6.952123343944549561e-02,
4.681855738162994385e-01,
-2.802126407623291016e-01,
-1.101614534854888916e-01,
-1.298194229602813721e-01,
5.365524888038635254e-01,
2.037517493590712547e-03,
2.577114701271057129e-01,
3.547494709491729736e-01,
3.051045835018157959e-01,
2.498633563518524170e-01,
1.240671128034591675e-01,
3.358578383922576904e-01,
-5.012523033656179905e-04,
2.159651070833206177e-01,
-2.560018301010131836e-01,
6.261892318725585938e-01,
5.983496084809303284e-02,
5.436795949935913086e-01,
-1.878227293491363525e-02,
-2.271608449518680573e-02,
-3.880036249756813049e-02,
3.288124501705169678e-02,
4.069083034992218018e-01,
3.073280155658721924e-01,
-6.212057545781135559e-02,
-4.281238187104463577e-03,
-1.332488507032394409e-01,
3.545754402875900269e-02,
-5.333612859249114990e-02,
-8.395075052976608276e-02,
2.900545299053192139e-01,
3.781408444046974182e-02,
3.422549068927764893e-01,
1.051672622561454773e-01,
1.117640733718872070e-02,
7.037904113531112671e-02,
4.399512112140655518e-01,
4.259661212563514709e-02,
-1.570825278759002686e-01,
-7.053206115961074829e-02,
3.868938982486724854e-02,
1.690303385257720947e-01,
-3.010422922670841217e-02,
-3.165433928370475769e-02,
4.469669982790946960e-02,
1.832668483257293701e-02,
3.544486761093139648e-01,
-8.580666035413742065e-02,
5.899559333920478821e-02,
-5.808030813932418823e-02,
1.794772781431674957e-02,
3.235548734664916992e-01,
-4.855939000844955444e-02,
5.982989072799682617e-02,
-2.283691912889480591e-01,
3.903359174728393555e-01,
3.819142878055572510e-01,
3.009204268455505371e-01,
1.081820391118526459e-02,
4.236049950122833252e-01,
-1.617030501365661621e-01,
-1.520016491413116455e-01,
-8.954898267984390259e-02,
-2.461374364793300629e-02,
-2.651609666645526886e-02,
-1.118617653846740723e-01,
2.534819841384887695e-01,
3.686207830905914307e-01,
-3.338911384344100952e-02,
-1.001587361097335815e-01,
4.336578845977783203e-01,
-3.751113638281822205e-02,
3.993882536888122559e-01,
-3.341408446431159973e-02,
-3.417141363024711609e-02,
-1.878812313079833984e-01,
3.968730270862579346e-01,
-1.002035886049270630e-01,
3.310930430889129639e-01,
-2.706792652606964111e-01,
-1.050509214401245117e-01,
1.459054946899414062e-01,
4.726445674896240234e-02,
-3.349224850535392761e-02,
-2.857613861560821533e-01,
9.011966735124588013e-02,
5.492767691612243652e-01,
2.307707369327545166e-01,
-1.087944060564041138e-01,
4.341621100902557373e-01,
-3.043493442237377167e-02,
1.349070966243743896e-01,
