-2.409752905368804932e-01,
-2.434534281492233276e-01,
-4.941880330443382263e-02,
2.054600268602371216e-01,
-1.137180030345916748e-01,
1.823603659868240356e-01,
3.279101550579071045e-01,
-9.345032274723052979e-02,
4.043745696544647217e-01,
1.200423389673233032e-02,
-6.009823828935623169e-02,
-2.044397741556167603e-01,
6.835181117057800293e-01,
-7.938628084957599640e-03,
3.337173536419868469e-02,
3.633718490600585938e-01,
3.453713655471801758e-01,
3.965083062648773193e-01,
1.637921929359436035e-01,
3.055772185325622559e-01,
-5.287309363484382629e-02,
2.853660285472869873e-01,
-1.942846179008483887e-01,
4.371117055416107178e-01,
7.098875939846038818e-02,
-5.512909591197967529e-02,
-2.205239832401275635e-01,
1.097159162163734436e-01,
3.302822634577751160e-02,
-3.022614121437072754e-02,
2.852724194526672363e-01,
4.425173103809356689e-01,
-3.716571489349007607e-03,
-9.244308620691299438e-02,
-1.184959337115287781e-01,
3.017061576247215271e-02,
-7.057100534439086914e-02,
-1.973587125539779663e-01,
3.855835199356079102e-01,
-6.525784730911254883e-02,
4.552421271800994873e-01,
-1.631010174751281738e-01,
-9.375955164432525635e-02,
-3.719890117645263672e-02,
-3.333837538957595825e-02,
-1.565740406513214111e-01,
-1.234792470932006836e-01,
-2.156159281730651855e-01,
-2.819265425205230713e-01,
5.135065913200378418e-01,
2.159899324178695679e-01,
-6.096497178077697754e-02,
-2.148961722850799561e-01,
-9.412723034620285034e-02,
2.286180257797241211e-01,
-2.342226728796958923e-02,
-1.391294747591018677e-01,
-7.284832000732421875e-02,
8.340561389923095703e-02,
1.968373507261276245e-01,
-1.492500454187393188e-01,
-1.402511298656463623e-01,
-5.993640422821044922e-02,
3.486373126506805420e-01,
4.062951803207397461e-01,
4.445284903049468994e-01,
-5.096389725804328918e-02,
4.258578121662139893e-01,
-7.556211203336715698e-02,
-2.088090479373931885e-01,
-1.062726899981498718e-01,
4.381206631660461426e-01,
-9.653817862272262573e-02,
4.519167244434356689e-01,
4.094864726066589355e-01,
3.054667413234710693e-01,
-1.734450906515121460e-01,
-3.125406503677368164e-01,
5.282394289970397949e-01,
-9.091544896364212036e-02,
4.634832143783569336e-01,
-4.507663473486900330e-02,
-1.894109249114990234e-01,
-1.027218028903007507e-01,
5.180404186248779297e-01,
-7.229124009609222412e-02,
3.987027406692504883e-01,
-1.848439276218414307e-01,
2.346410881727933884e-03,
5.372757557779550552e-03,
-9.599512070417404175e-02,
-3.326895087957382202e-02,
-2.149091660976409912e-01,
-7.445102930068969727e-02,
4.437689185142517090e-01,
2.972347140312194824e-01,
-2.361223250627517700e-01,
4.241893887519836426e-01,
-1.845632940530776978e-01,
3.206252753734588623e-01,
