3.495251014828681946e-02,
4.057867079973220825e-02,
4.307083785533905029e-02,
3.473759815096855164e-02,
2.992991730570793152e-02,
3.126014396548271179e-02,
2.376954257488250732e-01,
4.507986828684806824e-02,
3.940209746360778809e-02,
8.180275559425354004e-03,
5.964408442378044128e-02,
3.520940616726875305e-02,
-1.931959204375743866e-02,
2.073227912187576294e-01,
1.648103743791580200e-01,
-1.217079162597656250e-02,
-1.118485070765018463e-02,
2.581925131380558014e-02,
8.421305567026138306e-03,
2.732245624065399170e-02,
3.455342724919319153e-02,
3.141179680824279785e-02,
4.185673221945762634e-02,
1.422129664570093155e-02,
3.257687389850616455e-02,
2.326364219188690186e-01,
4.620667546987533569e-02,
-4.338388098403811455e-04,
9.877443080767989159e-04,
-2.616383368149399757e-03,
2.803053148090839386e-02,
3.174116834998130798e-02,
3.056325018405914307e-02,
-1.336393225938081741e-02,
3.896164521574974060e-02,
4.439254477620124817e-02,
1.202132999897003174e-01,
5.470340326428413391e-02,
3.425229713320732117e-02,
5.266734957695007324e-02,
1.049291528761386871e-02,
3.699764609336853027e-02,
3.208196163177490234e-02,
1.985722221434116364e-02,
-1.003965362906455994e-02,
8.777713775634765625e-02,
6.209913641214370728e-02,
3.993562236428260803e-02,
5.411518365144729614e-02,
3.783329622820019722e-03,
-1.301199290901422501e-02,
2.141734026372432709e-02,
3.833611682057380676e-02,
2.103088609874248505e-02,
-7.233318407088518143e-03,
3.410170599818229675e-02,
4.521116241812705994e-02,
-3.830369329079985619e-03,
1.267257034778594971e-01,
3.184592351317405701e-02,
3.691242635250091553e-02,
3.551766276359558105e-02,
4.074149206280708313e-02,
3.093863278627395630e-02,
7.742996327579021454e-03,
-1.543450634926557541e-02,
3.305006772279739380e-02,
-7.316980045288801193e-03,
3.927292302250862122e-02,
3.360731899738311768e-02,
-2.748002298176288605e-03,
-1.226769480854272842e-02,
-7.847121916711330414e-03,
3.656940534710884094e-02,
-1.197110861539840698e-02,
2.066793292760848999e-02,
3.270239010453224182e-02,
4.231564328074455261e-02,
-4.873432964086532593e-02,
3.420038148760795593e-02,
-1.517358329147100449e-02,
6.165598332881927490e-02,
3.423969820141792297e-02,
5.165655165910720825e-02,
7.995100319385528564e-02,
3.206064552068710327e-02,
-1.873864792287349701e-02,
5.898645892739295959e-02,
3.685098141431808472e-02,
-5.310351494699716568e-03,
3.596091270446777344e-02,
1.091386601328849792e-01,
7.130829244852066040e-02,
4.588743671774864197e-02,
3.866229206323623657e-02,
2.580181695520877838e-02,
3.628223761916160583e-02,
-2.425878494977951050e-02,
3.507873415946960449e-02,
-9.871843270957469940e-03,
