-7.463137805461883545e-02,
-7.587572932243347168e-02,
-1.023368909955024719e-02,
1.777788102626800537e-01,
-4.577737674117088318e-02,
1.425063759088516235e-01,
4.258644580841064453e-01,
-3.676023706793785095e-02,
3.773572444915771484e-01,
-1.306268721818923950e-01,
-1.100275889039039612e-01,
-1.301302760839462280e-01,
5.969408154487609863e-01,
7.271680980920791626e-02,
-1.531524360179901123e-01,
4.067093133926391602e-01,
2.229166626930236816e-01,
2.398504912853240967e-01,
3.835083842277526855e-01,
2.555331885814666748e-01,
6.229767948389053345e-02,
2.241414636373519897e-01,
-1.550602763891220093e-01,
4.887008070945739746e-01,
7.254458218812942505e-02,
-5.418920516967773438e-02,
-1.521738618612289429e-01,
-4.047367721796035767e-02,
6.634362787008285522e-02,
-3.729806095361709595e-02,
3.748496770858764648e-01,
2.604103386402130127e-01,
-9.479728527367115021e-03,
-2.450258657336235046e-02,
-5.356807261705398560e-02,
-1.817816495895385742e-01,
-5.069748684763908386e-02,
-5.656220391392707825e-02,
2.740977406501770020e-01,
-5.331138148903846741e-02,
3.250631093978881836e-01,
-9.296377748250961304e-02,
-3.374680504202842712e-02,
1.230870559811592102e-01,
1.419298499822616577e-01,
-1.693961769342422485e-01,
2.587500400841236115e-02,
-1.087715625762939453e-01,
9.104894474148750305e-03,
3.330675959587097168e-01,
1.226227078586816788e-02,
6.167738512158393860e-02,
-5.375780165195465088e-02,
-8.319251984357833862e-02,
1.445019245147705078e-01,
-1.800484023988246918e-02,
4.057456390000879765e-04,
-2.375063300132751465e-02,
-1.096816733479499817e-01,
2.269479185342788696e-01,
-6.964395940303802490e-02,
-7.418020814657211304e-02,
-5.029886960983276367e-03,
2.983255982398986816e-01,
3.983460366725921631e-01,
3.172156810760498047e-01,
-6.120438128709793091e-02,
3.538008630275726318e-01,
-2.086019329726696014e-02,
-8.240042626857757568e-02,
7.240018993616104126e-02,
3.809695839881896973e-01,
-3.073670086450874805e-05,
1.914461702108383179e-01,
2.386773079633712769e-01,
4.236119091510772705e-01,
-9.082780778408050537e-02,
-5.006067827343940735e-02,
3.637390434741973877e-01,
-2.623282838612794876e-03,
3.008944690227508545e-01,
-1.190285086631774902e-01,
-9.884704649448394775e-02,
-1.925083100795745850e-01,
3.737177252769470215e-01,
1.047964766621589661e-01,
3.568561673164367676e-01,
-1.553778052330017090e-01,
5.192206706851720810e-03,
-2.514751628041267395e-02,
-2.576617151498794556e-02,
9.542594850063323975e-02,
-9.887973219156265259e-02,
-1.756633445620536804e-02,
4.276419579982757568e-01,
2.423526346683502197e-01,
-1.011978313326835632e-01,
3.362520933151245117e-01,
2.190218679606914520e-02,
2.049802243709564209e-01,
