-1.457167975604534149e-02,
-3.400010615587234497e-02,
-4.638493806123733521e-02,
4.409871995449066162e-03,
1.985166035592556000e-02,
-1.989432610571384430e-02,
-2.550161257386207581e-02,
-2.727909088134765625e-01,
-5.517020355910062790e-03,
-4.462029412388801575e-02,
6.862615793943405151e-02,
-1.040558796375989914e-02,
-1.243171319365501404e-01,
5.034398287534713745e-02,
-8.098433911800384521e-02,
6.937949359416961670e-02,
-2.242544107139110565e-02,
-1.174600049853324890e-01,
2.006767503917217255e-02,
-4.335481226444244385e-01,
-4.341728240251541138e-02,
6.061277352273464203e-03,
-4.398904740810394287e-01,
-1.350849717855453491e-01,
1.295557897537946701e-02,
-2.162004113197326660e-01,
-3.593180477619171143e-01,
-4.042463004589080811e-01,
-3.408412039279937744e-01,
4.888687282800674438e-02,
4.935656487941741943e-02,
-2.209531217813491821e-01,
-5.898570641875267029e-02,
-2.880415320396423340e-02,
-1.239300984889268875e-02,
5.767649039626121521e-02,
-9.872733056545257568e-02,
-6.936472374945878983e-03,
9.798204898834228516e-02,
-9.975913166999816895e-02,
-2.314052879810333252e-01,
-1.375100314617156982e-01,
-7.989002019166946411e-02,
-1.782997883856296539e-02,
1.013051718473434448e-02,
-2.221181988716125488e-01,
6.718564778566360474e-02,
-5.439776182174682617e-02,
5.521234497427940369e-02,
-4.813957028090953827e-03,
-7.146547734737396240e-02,
4.869848117232322693e-02,
-4.376824200153350830e-01,
-4.121369868516921997e-02,
-2.638824656605720520e-02,
-2.942948974668979645e-02,
-3.456288278102874756e-01,
2.237652428448200226e-02,
7.919381023384630680e-04,
-4.175285249948501587e-02,
2.915420569479465485e-02,
-6.392554193735122681e-02,
2.135985903441905975e-02,
-3.717771172523498535e-02,
5.804888904094696045e-03,
4.689585417509078979e-02,
-1.099995076656341553e-01,
-1.524725109338760376e-01,
-1.176714748144149780e-01,
6.314036250114440918e-02,
-1.755102910101413727e-02,
-2.118787728250026703e-02,
-3.945959731936454773e-02,
-1.106110028922557831e-02,
-4.920597746968269348e-02,
4.050213098526000977e-02,
-1.535008698701858521e-01,
-1.564210839569568634e-02,
2.804101211950182915e-03,
-3.734504804015159607e-02,
-5.973445251584053040e-02,
-3.427720665931701660e-01,
-2.151177078485488892e-01,
-2.588304318487644196e-02,
-4.928473010659217834e-02,
-2.614057622849941254e-02,
-5.112729072570800781e-01,
2.117089927196502686e-02,
2.156991884112358093e-02,
-2.663655579090118408e-01,
2.128306217491626740e-02,
-4.678811505436897278e-02,
5.889969319105148315e-02,
-1.457675099372863770e-01,
-5.503895133733749390e-02,
-5.956436973065137863e-03,
-1.310388892889022827e-01,
-8.453615754842758179e-02,
1.465360224246978760e-01,
-4.530278146266937256e-01,
