1.248658075928688049e-01,
3.787702918052673340e-01,
1.347597837448120117e-01,
8.620744943618774414e-02,
7.709047198295593262e-02,
5.833607167005538940e-02,
1.101642847061157227e-01,
1.616767793893814087e-01,
1.232439577579498291e-01,
2.566743195056915283e-01,
1.051973998546600342e-01,
7.177455723285675049e-02,
7.336197048425674438e-02,
2.415209263563156128e-01,
3.403693437576293945e-02,
7.915969938039779663e-03,
-3.008550405502319336e-02,
2.869945019483566284e-03,
-6.058552861213684082e-02,
-2.907664049416780472e-03,
8.997148275375366211e-02,
2.601377107203006744e-02,
1.613984107971191406e-01,
-5.003459379076957703e-02,
4.628272354602813721e-02,
-4.211114719510078430e-02,
1.467764228582382202e-01,
1.687800586223602295e-01,
-1.979713141918182373e-02,
5.377450585365295410e-02,
1.032670587301254272e-02,
6.051679700613021851e-02,
8.871206641197204590e-02,
1.492302492260932922e-02,
9.878765791654586792e-02,
1.537978351116180420e-01,
-9.805245697498321533e-02,
1.677491813898086548e-01,
3.802151652052998543e-03,
1.844677478075027466e-01,
-7.427296042442321777e-02,
6.942827999591827393e-02,
7.863911241292953491e-02,
2.303090295754373074e-04,
-2.252261713147163391e-02,
2.912806868553161621e-01,
1.509072184562683105e-01,
1.859938204288482666e-01,
1.365534067153930664e-01,
7.153382990509271622e-03,
-2.415977977216243744e-02,
-1.719640754163265228e-02,
1.704573333263397217e-01,
-3.040590672753751278e-04,
-8.460192382335662842e-02,
8.826484531164169312e-02,
1.171359419822692871e-01,
-1.669669523835182190e-02,
2.745702266693115234e-01,
3.172535076737403870e-02,
7.722160220146179199e-02,
1.355960369110107422e-01,
1.455686688423156738e-01,
2.334253117442131042e-02,
-6.660810858011245728e-02,
-8.864175528287887573e-02,
-9.214290417730808258e-03,
-5.306740105152130127e-02,
1.372286826372146606e-01,
1.129773482680320740e-01,
-1.716818287968635559e-02,
-1.152118854224681854e-02,
4.404571652412414551e-02,
6.307341903448104858e-02,
-8.272998034954071045e-02,
-2.716909535229206085e-02,
1.196687072515487671e-01,
1.318478435277938843e-01,
-8.875332772731781006e-02,
8.474417775869369507e-02,
-1.026670709252357483e-01,
1.510512232780456543e-01,
1.567287594079971313e-01,
1.389836668968200684e-01,
-1.629284955561161041e-02,
8.477546274662017822e-02,
-8.846067637205123901e-02,
1.710271835327148438e-01,
1.186491400003433228e-01,
-3.675399348139762878e-02,
9.659164398908615112e-02,
-6.799081712961196899e-02,
1.447226256132125854e-01,
1.399019807577133179e-01,
1.430846452713012695e-01,
4.155262559652328491e-02,
1.886924058198928833e-01,
-4.363100230693817139e-02,
1.210381165146827698e-01,
-1.240234822034835815e-01,
